FANN_FLO_2.1
num_layers=2
learning_rate=0.700000
connection_rate=1.000000
network_type=1
learning_momentum=0.000000
training_algorithm=2
train_error_function=1
train_stop_function=0
cascade_output_change_fraction=0.010000
quickprop_decay=-0.000100
quickprop_mu=1.750000
rprop_increase_factor=1.200000
rprop_decrease_factor=0.500000
rprop_delta_min=0.000000
rprop_delta_max=50.000000
rprop_delta_zero=0.100000
cascade_output_stagnation_epochs=12
cascade_candidate_change_fraction=0.010000
cascade_candidate_stagnation_epochs=12
cascade_max_out_epochs=50000
cascade_min_out_epochs=50
cascade_max_cand_epochs=50000
cascade_min_cand_epochs=50
cascade_num_candidate_groups=2
bit_fail_limit=3.49999999999999977796e-01
cascade_candidate_limit=1.00000000000000000000e+03
cascade_weight_multiplier=4.00000000000000022204e-01
cascade_activation_functions_count=10
cascade_activation_functions=3 5 7 8 10 11 14 15 16 17 
cascade_activation_steepnesses_count=4
cascade_activation_steepnesses=2.50000000000000000000e-01 5.00000000000000000000e-01 7.50000000000000000000e-01 1.00000000000000000000e+00 
layer_sizes=29 1 
scale_included=0
neurons (num_inputs, activation_function, activation_steepness)=(0, 0, 0.00000000000000000000e+00) (0, 0, 0.00000000000000000000e+00) (0, 0, 0.00000000000000000000e+00) (0, 0, 0.00000000000000000000e+00) (0, 0, 0.00000000000000000000e+00) (0, 0, 0.00000000000000000000e+00) (0, 0, 0.00000000000000000000e+00) (0, 0, 0.00000000000000000000e+00) (0, 0, 0.00000000000000000000e+00) (0, 0, 0.00000000000000000000e+00) (0, 0, 0.00000000000000000000e+00) (0, 0, 0.00000000000000000000e+00) (0, 0, 0.00000000000000000000e+00) (0, 0, 0.00000000000000000000e+00) (0, 0, 0.00000000000000000000e+00) (0, 0, 0.00000000000000000000e+00) (0, 0, 0.00000000000000000000e+00) (0, 0, 0.00000000000000000000e+00) (0, 0, 0.00000000000000000000e+00) (0, 0, 0.00000000000000000000e+00) (0, 0, 0.00000000000000000000e+00) (0, 0, 0.00000000000000000000e+00) (0, 0, 0.00000000000000000000e+00) (0, 0, 0.00000000000000000000e+00) (0, 0, 0.00000000000000000000e+00) (0, 0, 0.00000000000000000000e+00) (0, 0, 0.00000000000000000000e+00) (0, 0, 0.00000000000000000000e+00) (0, 0, 0.00000000000000000000e+00) (29, 4, 5.00000000000000000000e-01) 
connections (connected_to_neuron, weight)=(0, 6.97905024990117389683e-02) (1, -6.00802958026713362222e-03) (2, 1.16910879920390828324e-01) (3, 7.05119422182118732456e-02) (4, -2.60080905154669445034e-02) (5, 2.98784574970280894513e-02) (6, 1.11258320615124448733e-02) (7, -2.28386938467192851521e-02) (8, 1.09848027537730916214e-01) (9, 8.18774759508333754843e-02) (10, -1.56519651674069740221e-02) (11, -7.25140692171502704300e-02) (12, 1.09284048388866170121e-01) (13, -2.33607041172144633268e-02) (14, -2.92301310453929527600e-02) (15, -2.06151780326621791861e-01) (16, -2.52763454456584490959e-01) (17, 1.20158223929953088260e-02) (18, -4.87185241159844642511e-02) (19, -5.90951861318993812433e-02) (20, 5.70501139864003428692e-02) (21, 1.03812108797128141435e-01) (22, 1.11944784830478413773e-01) (23, -1.03379934346591803584e-02) (24, -3.25974653472628009276e-02) (25, -1.30564404226559196975e-02) (26, 1.14494220261060627308e+03) (27, -3.17657914347720532477e-02) (28, 9.19232717260396320347e-02) 
